{"learner":{"attributes":{"best_iteration":"25","best_score":"0.015774174473848","scikit_learn":"{\"_estimator_type\": \"classifier\"}"},"feature_names":[],"feature_types":[],"gradient_booster":{"model":{"gbtree_model_param":{"num_parallel_tree":"1","num_trees":"29"},"iteration_indptr":[0,1,2,3,4,5,6,7,8,9,10,11,12,13,14,15,16,17,18,19,20,21,22,23,24,25,26,27,28,29],"tree_info":[0,0,0,0,0,0,0,0,0,0,0,0,0,0,0,0,0,0,0,0,0,0,0,0,0,0,0,0,0],"trees":[{"base_weights":[-9.8339564E-1,-1.0565724E0,1.8948053E0,-1.0778773E0,2.3692246E-1,1.1213307E0,-2.2425447E-1,-1.088311E0,-2.8069286E-2,-1.0934873E0,-7.956052E-2,-1.0986899E0,-1.0151935E-1,-3.3116615E-1,-1.3603958E-1],"categories":[],"categories_nodes":[],"categories_segments":[],"categories_sizes":[],"default_left":[0,0,0,0,0,0,0,0,0,0,0,0,0,0,0],"id":0,"left_children":[1,3,5,7,-1,-1,-1,9,-1,11,-1,13,-1,-1,-1],"loss_changes":[4.128299E1,8.030777E0,2.7055813E1,1.7556458E0,0E0,0E0,0E0,4.7209167E-1,0E0,3.252411E-1,0E0,8.886719E-2,0E0,0E0,0E0],"parents":[2147483647,0,0,1,1,2,2,3,3,7,7,9,9,11,11],"right_children":[2,4,6,8,-1,-1,-1,10,-1,12,-1,14,-1,-1,-1],"split_conditions":[1E0,1E0,1E0,1E0,2.3692246E-1,1.1213307E0,-2.2425447E-1,1E0,-2.8069286E-2,1E0,-7.956052E-2,1E0,-1.0151935E-1,-3.3116615E-1,-1.3603958E-1],"split_indices":[136,172,26,153,0,0,0,90,0,142,0,59,0,0,0],"split_type":[0,0,0,0,0,0,0,0,0,0,0,0,0,0,0],"sum_hessian":[1.8550371E2,1.8152151E2,3.9821904E0,1.7986227E2,1.659246E0,2.1017115E0,1.8804789E0,1.7787117E2,1.9910952E0,1.7643317E2,1.4380132E0,1.7477391E2,1.659246E0,1.726722E2,2.1017115E0],"tree_param":{"num_deleted":"0","num_feature":"218","num_nodes":"15","size_leaf_vector":"1"}},{"base_weights":[-9.134509E-1,-9.940306E-1,9.6240914E-1,-1.0197368E0,1.689448E-1,6.34176E-1,-9.8402E-2,-1.0324122E0,-2.2838887E-2,-2.343802E-1,2.219974E-1,-1.0389494E0,-5.1936924E-2,-1.0453105E0,-7.6648995E-2,-3.1555936E-1,-1.1078446E-1],"categories":[],"categories_nodes":[],"categories_segments":[],"categories_sizes":[],"default_left":[0,0,0,0,0,0,0,0,0,0,0,0,0,0,0,0,0],"id":1,"left_children":[1,3,5,7,-1,-1,9,11,-1,-1,-1,13,-1,15,-1,-1,-1],"loss_changes":[2.3430641E1,6.3003693E0,8.308956E0,1.6088257E0,0E0,0E0,3.101381E0,6.016693E-1,0E0,0E0,0E0,4.2008972E-1,0E0,2.1612549E-1,0E0,0E0,0E0],"parents":[2147483647,0,0,1,1,2,2,3,3,6,6,7,7,11,11,13,13],"right_children":[2,4,6,8,-1,-1,10,12,-1,-1,-1,14,-1,16,-1,-1,-1],"split_conditions":[1E0,1E0,1E0,1E0,1.689448E-1,6.34176E-1,1E0,1E0,-2.2838887E-2,-2.343802E-1,2.219974E-1,1E0,-5.1936924E-2,1E0,-7.6648995E-2,-3.1555936E-1,-1.1078446E-1],"split_indices":[136,172,17,153,0,0,12,158,0,0,0,142,0,157,0,0,0],"split_type":[0,0,0,0,0,0,0,0,0,0,0,0,0,0,0,0,0],"sum_hessian":[1.4768048E2,1.420487E2,5.63177E0,1.4008136E2,1.967344E0,2.2244213E0,3.407349E0,1.3813173E2,1.9496295E0,1.9154038E0,1.4919453E0,1.3688132E2,1.2504168E0,1.3544733E2,1.4339833E0,1.3359619E2,1.8511388E0],"tree_param":{"num_deleted":"0","num_feature":"218","num_nodes":"17","size_leaf_vector":"1"}},{"base_weights":[-8.4971833E-1,-9.377998E-1,7.141539E-1,-9.686195E-1,4.119611E-1,1.1722118E0,-1.921364E-1,-9.84153E-1,-1.8558715E-2,2.1664168E-1,-3.7157614E-2,4.686035E-1,9.812018E-2,-9.923011E-1,-2.9338473E-2,-1.0000155E0,-7.66407E-2,-3.097914E-1,-2.0510247E-1],"categories":[],"categories_nodes":[],"categories_segments":[],"categories_sizes":[],"default_left":[0,0,0,0,0,0,0,0,0,0,0,0,0,0,0,0,0,0,0],"id":2,"left_children":[1,3,5,7,9,11,-1,13,-1,-1,-1,-1,-1,15,-1,17,-1,-1,-1],"loss_changes":[1.6903221E1,5.058037E0,5.0019364E0,1.4856033E0,6.215811E-1,1.2922401E0,0E0,6.820755E-1,0E0,0E0,0E0,0E0,0E0,3.5152435E-1,0E0,3.8108063E-1,0E0,0E0,0E0],"parents":[2147483647,0,0,1,1,2,2,3,3,4,4,5,5,7,7,13,13,15,15],"right_children":[2,4,6,8,10,12,-1,14,-1,-1,-1,-1,-1,16,-1,18,-1,-1,-1],"split_conditions":[1E0,1E0,1E0,1E0,1E0,1E0,-1.921364E-1,1E0,-1.8558715E-2,2.1664168E-1,-3.7157614E-2,4.686035E-1,9.812018E-2,1E0,-2.9338473E-2,1E0,-7.66407E-2,-3.097914E-1,-2.0510247E-1],"split_indices":[136,172,26,153,61,17,0,90,0,0,0,0,0,142,0,139,0,0,0],"split_type":[0,0,0,0,0,0,0,0,0,0,0,0,0,0,0,0,0,0,0],"sum_hessian":[1.16848946E2,1.1099759E2,5.8513503E0,1.0879579E2,2.201804E0,4.473347E0,1.3780032E0,1.068795E2,1.9162873E0,1.1742954E0,1.0275085E0,2.480887E0,1.9924603E0,1.0578749E2,1.0920101E0,1.0433792E2,1.4495714E0,9.2531364E1,1.1806552E1],"tree_param":{"num_deleted":"0","num_feature":"218","num_nodes":"19","size_leaf_vector":"1"}},{"base_weights":[-7.8910434E-1,-8.828074E-1,5.6543255E-1,-9.1958696E-1,3.2439125E-1,9.187185E-1,-1.7623875E-1,-9.766053E-1,-5.020382E-1,1.663929E-1,-3.196093E-2,3.7180188E-1,7.668925E-2,-9.884511E-1,-2.5108607E-2,3.703183E-1,-7.979897E-1,-3.000496E-1,-6.099022E-2,-8.248158E-2,-2.571671E-1],"categories":[],"categories_nodes":[],"categories_segments":[],"categories_sizes":[],"default_left":[0,0,0,0,0,0,0,0,0,0,0,0,0,0,0,0,0,0,0,0,0],"id":3,"left_children":[1,3,5,7,9,11,-1,13,15,-1,-1,-1,-1,17,-1,-1,19,-1,-1,-1,-1],"loss_changes":[1.2397358E1,4.208542E0,3.2583847E0,1.5506363E0,3.9079309E-1,8.523245E-1,0E0,7.038727E-1,7.3355722E0,0E0,0E0,0E0,0E0,4.7084045E-1,0E0,0E0,1.1024761E-1,0E0,0E0,0E0,0E0],"parents":[2147483647,0,0,1,1,2,2,3,3,4,4,5,5,7,7,8,8,13,13,16,16],"right_children":[2,4,6,8,10,12,-1,14,16,-1,-1,-1,-1,18,-1,-1,20,-1,-1,-1,-1],"split_conditions":[1E0,1E0,1E0,1E0,1E0,1E0,-1.7623875E-1,1E0,1E0,1.663929E-1,-3.196093E-2,3.7180188E-1,7.668925E-2,1E0,-2.5108607E-2,3.703183E-1,1E0,-3.000496E-1,-6.099022E-2,-8.248158E-2,-2.571671E-1],"split_indices":[136,172,26,139,61,17,0,90,17,0,0,0,0,138,0,0,26,0,0,0,0],"split_type":[0,0,0,0,0,0,0,0,0,0,0,0,0,0,0,0,0,0,0,0,0],"sum_hessian":[9.2742516E1,8.706768E1,5.674837E0,8.472463E1,2.343048E0,4.499239E0,1.1755984E0,7.336709E1,1.1357541E1,1.3399827E0,1.0030655E0,2.4470024E0,2.0522363E0,7.23009E1,1.0661862E0,1.1921166E0,1.0165424E1,7.096823E1,1.3326751E0,1.6079936E0,8.557431E0],"tree_param":{"num_deleted":"0","num_feature":"218","num_nodes":"21","size_leaf_vector":"1"}},{"base_weights":[-7.279418E-1,-8.257737E-1,4.6180454E-1,-9.388828E-1,-2.7928677E-1,7.5277025E-1,-1.6191821E-1,-9.5459735E-1,-1.4437805E-2,4.949941E-1,-2.4412933E-1,3.1418002E-1,6.0238644E-2,-9.6941185E-1,-5.2236293E-2,-6.382978E-1,5.6470776E-1,-3.059734E-1,-6.775247E-1,-2.2246416E-1,-5.6993708E-2,-8.725871E-2,-2.6590705E-1],"categories":[],"categories_nodes":[],"categories_segments":[],"categories_sizes":[],"default_left":[0,0,0,0,0,0,0,0,0,0,0,0,0,0,0,0,0,0,0,0,0,0,0],"id":4,"left_children":[1,3,5,7,9,11,-1,13,-1,15,-1,-1,-1,17,-1,19,-1,-1,21,-1,-1,-1,-1],"loss_changes":[9.12344E0,4.0497665E0,2.2561913E0,7.5715256E-1,5.942353E0,6.5719986E-1,0E0,4.8246765E-1,0E0,1.0774181E1,0E0,0E0,0E0,1.2053299E-1,0E0,4.880297E-2,0E0,0E0,6.384368E-1,0E0,0E0,0E0,0E0],"parents":[2147483647,0,0,1,1,2,2,3,3,4,4,5,5,7,7,9,9,13,13,15,15,18,18],"right_children":[2,4,6,8,10,12,-1,14,-1,16,-1,-1,-1,18,-1,20,-1,-1,22,-1,-1,-1,-1],"split_conditions":[1E0,1E0,1E0,1E0,1E0,1E0,-1.6191821E-1,1E0,-1.4437805E-2,1E0,-2.4412933E-1,3.1418002E-1,6.0238644E-2,1E0,-5.2236293E-2,1E0,5.6470776E-1,-3.059734E-1,1E0,-2.2246416E-1,-5.6993708E-2,-8.725871E-2,-2.6590705E-1],"split_indices":[136,139,26,73,26,17,0,138,0,9,0,0,0,16,0,155,0,0,26,0,0,0,0],"split_type":[0,0,0,0,0,0,0,0,0,0,0,0,0,0,0,0,0,0,0,0,0,0,0],"sum_hessian":[7.410702E1,6.875895E1,5.34807E0,5.63731E1,1.238585E1,4.3365836E0,1.0114862E0,5.5325394E1,1.0477078E0,5.0883665E0,7.297483E0,2.242714E0,2.0938697E0,5.405723E1,1.2681588E0,3.0977993E0,1.9905673E0,4.3957886E1,1.0099347E1,1.9862883E0,1.111511E0,4.3808346E0,5.718513E0],"tree_param":{"num_deleted":"0","num_feature":"218","num_nodes":"23","size_leaf_vector":"1"}},{"base_weights":[-6.709658E-1,-8.504802E-1,-4.552463E-2,-8.99956E-1,-1.7386885E-2,5.686765E-1,-2.294494E-1,-9.5760465E-1,-3.9185983E-1,1.7931549E-1,-1.5231451E-1,-2.3259468E-1,3.4160578E-1,-2.9384613E-1,-3.3225458E-2,3.5775002E-2,-1.7888626E-1,-1.9055398E-1,1.268472E-1,-2.3724724E-2,7.942222E-2],"categories":[],"categories_nodes":[],"categories_segments":[],"categories_sizes":[],"default_left":[0,0,0,0,0,0,0,0,0,0,0,0,0,0,0,0,0,0,0,0,0],"id":5,"left_children":[1,3,5,7,9,11,-1,13,15,-1,-1,17,-1,-1,-1,-1,-1,-1,19,-1,-1],"loss_changes":[6.8372498E0,1.9433441E0,6.9356556E0,9.3827057E-1,1.4145908E0,4.1518807E0,0E0,6.2501144E-1,7.254079E-1,0E0,0E0,7.1264756E-1,0E0,0E0,0E0,0E0,0E0,0E0,1.1013482E-1,0E0,0E0],"parents":[2147483647,0,0,1,1,2,2,3,3,4,4,5,5,7,7,8,8,11,11,18,18],"right_children":[2,4,6,8,10,12,-1,14,16,-1,-1,18,-1,-1,-1,-1,-1,-1,20,-1,-1],"split_conditions":[1E0,1E0,1E0,1E0,1E0,1E0,-2.294494E-1,1E0,1E0,1.7931549E-1,-1.5231451E-1,1E0,3.4160578E-1,-2.9384613E-1,-3.3225458E-2,3.5775002E-2,-1.7888626E-1,-1.9055398E-1,1E0,-2.3724724E-2,7.942222E-2],"split_indices":[139,136,26,15,17,9,0,138,25,0,0,133,0,0,0,0,0,0,14,0,0],"split_type":[0,0,0,0,0,0,0,0,0,0,0,0,0,0,0,0,0,0,0,0,0],"sum_hessian":[6.024183E1,4.652764E1,1.37141905E1,4.3843597E1,2.6840436E0,7.510522E0,6.203669E0,3.8581448E1,5.262148E0,1.093392E0,1.5906516E0,3.3680072E0,4.1425147E0,3.745695E1,1.1244954E0,1.6224259E0,3.639722E0,1.2268131E0,2.141194E0,1.0297967E0,1.1113973E0],"tree_param":{"num_deleted":"0","num_feature":"218","num_nodes":"21","size_leaf_vector":"1"}},{"base_weights":[-6.111714E-1,-2.143059E-1,-9.20832E-1,-6.0823685E-1,4.389866E-1,-9.532354E-1,-1.03237685E-2,-7.364522E-1,8.2812235E-2,-1.3629416E-1,7.4586487E-1,-2.9651034E-1,-4.5383967E-2,-2.7709192E-1,-2.2443919E-1,4.2408666E-1,2.4746354E-1,2.950624E-2,-1.7024271E-1,-1.9166283E-1,6.0097414E-1,-4.9454894E-2,6.106262E-2,2.4773999E-1,6.773112E-2],"categories":[],"categories_nodes":[],"categories_segments":[],"categories_sizes":[],"default_left":[0,0,0,0,0,0,0,0,0,0,0,0,0,0,0,0,0,0,0,0,0,0,0,0,0],"id":6,"left_children":[1,3,5,7,9,11,-1,13,-1,-1,15,-1,-1,-1,17,-1,19,21,-1,-1,23,-1,-1,-1,-1],"loss_changes":[6.01832E0,6.3072634E0,7.7451134E-1,1.9108815E0,2.9183922E0,6.133957E-1,0E0,1.0795221E0,0E0,0E0,2.107081E0,0E0,0E0,0E0,4.449435E-1,0E0,2.088273E0,1.6124593E-1,0E0,0E0,1.8504119E-1,0E0,0E0,0E0,0E0],"parents":[2147483647,0,0,1,1,2,2,3,3,4,4,5,5,7,7,10,10,14,14,16,16,17,17,20,20],"right_children":[2,4,6,8,10,12,-1,14,-1,-1,16,-1,-1,-1,18,-1,20,22,-1,-1,24,-1,-1,-1,-1],"split_conditions":[1E0,1E0,1E0,1E0,1E0,1E0,-1.03237685E-2,1E0,8.2812235E-2,-1.3629416E-1,1E0,-2.9651034E-1,-4.5383967E-2,-2.7709192E-1,1E0,4.2408666E-1,1E0,1E0,-1.7024271E-1,-1.9166283E-1,1E0,-4.9454894E-2,6.106262E-2,2.4773999E-1,6.773112E-2],"split_indices":[26,23,41,136,24,34,0,16,0,0,17,0,0,0,21,0,14,133,0,0,4,0,0,0,0],"split_type":[0,0,0,0,0,0,0,0,0,0,0,0,0,0,0,0,0,0,0,0,0,0,0,0,0],"sum_hessian":[4.9577602E1,2.2470781E1,2.7106821E1,1.4061038E1,8.409744E0,2.6078146E1,1.0286753E0,1.2426442E1,1.6345953E0,2.027475E0,6.382269E0,2.4760962E1,1.317184E0,8.510969E0,3.915473E0,1.9428837E0,4.439385E0,2.775093E0,1.1403799E0,1.0356123E0,3.4037728E0,1.3359469E0,1.4391462E0,1.3774524E0,2.0263205E0],"tree_param":{"num_deleted":"0","num_feature":"218","num_nodes":"25","size_leaf_vector":"1"}},{"base_weights":[-5.508799E-1,-1.7932506E-1,-8.8449776E-1,-6.070069E-1,3.0483073E-1,-9.247248E-1,-8.803216E-3,-7.303818E-1,4.4999585E-2,-1.6542308E-1,4.6159807E-1,-2.907558E-1,-3.874015E-2,-2.649026E-1,-2.5851437E-1,9.657348E-1,1.07301645E-1,-1.6063178E-1,1.1286615E-2,6.706331E-2,4.3120047E-1,-1.9836204E-1,4.1338715E-1,1.9193894E-1,2.3503939E-2],"categories":[],"categories_nodes":[],"categories_segments":[],"categories_sizes":[],"default_left":[0,0,0,0,0,0,0,0,0,0,0,0,0,0,0,0,0,0,0,0,0,0,0,0,0],"id":7,"left_children":[1,3,5,7,9,11,-1,13,-1,-1,15,-1,-1,-1,17,19,21,-1,-1,-1,-1,-1,23,-1,-1],"loss_changes":[5.064988E0,4.5729246E0,7.2793007E-1,1.1916347E0,1.678037E0,6.152191E-1,0E0,5.014849E-1,0E0,0E0,1.5946541E0,0E0,0E0,0E0,3.3918658E-1,1.0084877E0,1.8514581E0,0E0,0E0,0E0,0E0,0E0,3.6050266E-1,0E0,0E0],"parents":[2147483647,0,0,1,1,2,2,3,3,4,4,5,5,7,7,10,10,14,14,15,15,16,16,22,22],"right_children":[2,4,6,8,10,12,-1,14,-1,-1,16,-1,-1,-1,18,20,22,-1,-1,-1,-1,-1,24,-1,-1],"split_conditions":[1E0,1E0,1E0,1E0,1E0,1E0,-8.803216E-3,1E0,4.4999585E-2,-1.6542308E-1,1E0,-2.907558E-1,-3.874015E-2,-2.649026E-1,1E0,1E0,1E0,-1.6063178E-1,1.1286615E-2,6.706331E-2,4.3120047E-1,-1.9836204E-1,1E0,1.9193894E-1,2.3503939E-2],"split_indices":[26,10,41,136,149,34,0,16,0,0,17,0,0,0,133,22,14,0,0,0,0,0,4,0,0],"split_type":[0,0,0,0,0,0,0,0,0,0,0,0,0,0,0,0,0,0,0,0,0,0,0,0,0],"sum_hessian":[4.1140312E1,2.0190922E1,2.094939E1,1.0585986E1,9.604936E0,1.993049E1,1.0189005E0,9.132727E0,1.4532596E0,1.0968295E0,8.508106E0,1.8668987E1,1.2615026E0,6.242324E0,2.8904028E0,2.7992318E0,5.7088747E0,1.0760642E0,1.8143384E0,1.660305E0,1.1389266E0,1.2956359E0,4.4132385E0,2.0907629E0,2.3224757E0],"tree_param":{"num_deleted":"0","num_feature":"218","num_nodes":"25","size_leaf_vector":"1"}},{"base_weights":[-4.887926E-1,-1.5045314E-1,-8.4370035E-1,-5.468552E-1,2.4074297E-1,-8.928625E-1,-7.506529E-3,-6.7438906E-1,3.701663E-2,-2.3311076E-1,4.1096705E-1,-2.8457057E-1,-3.3044E-2,-2.5337586E-1,-6.9114976E-2,-1.9067483E-1,7.670194E-2,2.8431448E-1,5.6507636E-2,-1.2244765E-1,1.0504637E-1],"categories":[],"categories_nodes":[],"categories_segments":[],"categories_sizes":[],"default_left":[0,0,0,0,0,0,0,0,0,0,0,0,0,0,0,0,0,0,0,0,0],"id":8,"left_children":[1,3,5,7,9,11,-1,13,-1,15,17,-1,-1,-1,-1,-1,-1,-1,19,-1,-1],"loss_changes":[4.190645E0,3.1748786E0,6.752119E-1,9.425452E-1,9.4851714E-1,6.071348E-1,0E0,4.553659E-1,0E0,8.376588E-1,1.4950342E0,0E0,0E0,0E0,0E0,0E0,0E0,0E0,9.5691204E-1,0E0,0E0],"parents":[2147483647,0,0,1,1,2,2,3,3,4,4,5,5,7,7,9,9,10,10,18,18],"right_children":[2,4,6,8,10,12,-1,14,-1,16,18,-1,-1,-1,-1,-1,-1,-1,20,-1,-1],"split_conditions":[1E0,1E0,1E0,1E0,1E0,1E0,-7.506529E-3,1E0,3.701663E-2,1E0,1E0,-2.8457057E-1,-3.3044E-2,-2.5337586E-1,-6.9114976E-2,-1.9067483E-1,7.670194E-2,2.8431448E-1,1E0,-1.2244765E-1,1.0504637E-1],"split_indices":[26,10,41,136,24,34,0,16,0,18,17,0,0,0,0,0,0,0,13,0,0],"split_type":[0,0,0,0,0,0,0,0,0,0,0,0,0,0,0,0,0,0,0,0,0],"sum_hessian":[3.4956097E1,1.862474E1,1.6331354E1,9.053179E0,9.571563E0,1.5320721E1,1.0106331E0,7.6007295E0,1.4524492E0,2.4320416E0,7.139521E0,1.4104974E1,1.2157471E0,4.8423533E0,2.7583761E0,1.1690737E0,1.262968E0,2.173922E0,4.965599E0,1.7718545E0,3.1937444E0],"tree_param":{"num_deleted":"0","num_feature":"218","num_nodes":"21","size_leaf_vector":"1"}},{"base_weights":[-4.32022E-1,-6.5593463E-1,4.5966133E-2,-7.6414275E-1,4.8268672E-2,2.179788E-1,-4.1040456E-1,-8.40133E-1,-2.7299237E-1,-2.1815467E-1,4.997079E-1,-1.0179456E-2,-1.7099766E-1,-2.641646E-1,-6.6382475E-2,1.787638E-2,-1.6886508E-1,3.219822E-2,-1.757203E-1,1.8005416E-1,1.4149641E-2],"categories":[],"categories_nodes":[],"categories_segments":[],"categories_sizes":[],"default_left":[0,0,0,0,0,0,0,0,0,0,0,0,0,0,0,0,0,0,0,0,0],"id":9,"left_children":[1,3,5,7,-1,9,11,13,15,17,19,-1,-1,-1,-1,-1,-1,-1,-1,-1,-1],"loss_changes":[3.3597312E0,2.0012589E0,9.4188726E-1,4.77499E-1,0E0,1.158262E0,1.8008673E-1,2.0333862E-1,4.2101565E-1,5.471032E-1,2.2140121E-1,0E0,0E0,0E0,0E0,0E0,0E0,0E0,0E0,0E0,0E0],"parents":[2147483647,0,0,1,1,2,2,3,3,5,5,6,6,7,7,8,8,9,9,10,10],"right_children":[2,4,6,8,-1,10,12,14,16,18,20,-1,-1,-1,-1,-1,-1,-1,-1,-1,-1],"split_conditions":[1E0,1E0,1E0,1E0,4.8268672E-2,1E0,1E0,1E0,1E0,1E0,1E0,-1.0179456E-2,-1.7099766E-1,-2.641646E-1,-6.6382475E-2,1.787638E-2,-1.6886508E-1,3.219822E-2,-1.757203E-1,1.8005416E-1,1.4149641E-2],"split_indices":[139,166,26,15,0,9,9,136,26,6,157,0,0,0,0,0,0,0,0,0,0],"split_type":[0,0,0,0,0,0,0,0,0,0,0,0,0,0,0,0,0,0,0,0,0],"sum_hessian":[3.0109552E1,2.0250814E1,9.858738E0,1.7938892E1,2.311921E0,7.539396E0,2.319342E0,1.4919953E1,3.0189402E0,3.047438E0,4.4919577E0,1.0514807E0,1.2678614E0,1.3608373E1,1.3115801E0,1.7759329E0,1.2430074E0,1.9917829E0,1.0556551E0,3.408883E0,1.0830748E0],"tree_param":{"num_deleted":"0","num_feature":"218","num_nodes":"21","size_leaf_vector":"1"}},{"base_weights":[-3.769878E-1,-1.075975E-1,-7.499959E-1,-5.93438E-1,1.3329281E-1,-8.1938046E-1,-4.1268356E-3,-2.4492128E-1,-2.1137322E-1,2.3115551E-1,-1.4907713E-1,-2.7118614E-1,-6.6954345E-3,-1.668617E-1,6.262662E-2,-4.7653404E-1,4.216259E-1,-2.2486262E-1,-1.7118391E-1,1.5525444E-1,4.4087622E-2,-1.3143297E-1,9.411832E-2],"categories":[],"categories_nodes":[],"categories_segments":[],"categories_sizes":[],"default_left":[0,0,0,0,0,0,0,0,0,0,0,0,0,0,0,0,0,0,0,0,0,0,0],"id":10,"left_children":[1,3,5,7,9,11,-1,-1,13,-1,15,-1,-1,-1,-1,17,19,-1,21,-1,-1,-1,-1],"loss_changes":[2.7045157E0,2.0993226E0,5.7394123E-1,3.304832E-1,2.3382297E0,6.8441343E-1,0E0,0E0,6.268707E-1,0E0,1.9576494E0,0E0,0E0,0E0,0E0,4.087566E-1,2.8184831E-2,0E0,6.9882166E-1,0E0,0E0,0E0,0E0],"parents":[2147483647,0,0,1,1,2,2,3,3,4,4,5,5,8,8,10,10,15,15,16,16,18,18],"right_children":[2,4,6,8,10,12,-1,-1,14,-1,16,-1,-1,-1,-1,18,20,-1,22,-1,-1,-1,-1],"split_conditions":[1E0,1E0,1E0,1E0,1E0,1E0,-4.1268356E-3,-2.4492128E-1,1E0,2.3115551E-1,1E0,-2.7118614E-1,-6.6954345E-3,-1.668617E-1,6.262662E-2,1E0,1E0,-2.2486262E-1,1E0,1.5525444E-1,4.4087622E-2,-1.3143297E-1,9.411832E-2],"split_indices":[26,24,28,5,137,36,0,0,10,0,9,0,0,0,0,16,12,0,155,0,0,0,0],"split_type":[0,0,0,0,0,0,0,0,0,0,0,0,0,0,0,0,0,0,0,0,0,0,0],"sum_hessian":[2.6717768E1,1.6261793E1,1.0455975E1,4.9052005E0,1.1356592E1,9.452251E0,1.003723E0,2.3796551E0,2.5255456E0,2.9563127E0,8.400279E0,8.424277E0,1.0279747E0,1.2091819E0,1.3163637E0,5.442498E0,2.957781E0,2.1054006E0,3.3370976E0,1.5370356E0,1.4207454E0,2.214573E0,1.1225247E0],"tree_param":{"num_deleted":"0","num_feature":"218","num_nodes":"23","size_leaf_vector":"1"}},{"base_weights":[-3.319869E-1,-9.932036E-2,-6.936487E-1,-5.3403115E-1,1.07471734E-1,-2.586783E-1,-1.7740697E-1,-2.2131503E-1,-3.668952E-2,3.423476E-1,-5.0550824E-1,1.2612411E-1,-1.8223661E-1,5.6335384E-1,-1.7772715E-1,-2.1407215E-1,-4.597968E-3,2.2433436E-1,2.4787429E-1,1.18785106E-1,-8.715851E-4],"categories":[],"categories_nodes":[],"categories_segments":[],"categories_sizes":[],"default_left":[0,0,0,0,0,0,0,0,0,0,0,0,0,0,0,0,0,0,0,0,0],"id":11,"left_children":[1,3,5,7,9,-1,11,-1,-1,13,15,-1,-1,17,-1,-1,-1,-1,19,-1,-1],"loss_changes":[2.0043688E0,1.5101187E0,6.7207146E-1,3.607061E-1,1.8695648E0,0E0,1.1790208E0,0E0,0E0,2.2168856E0,3.6316854E-1,0E0,0E0,2.7341104E-1,0E0,0E0,0E0,0E0,1.6471878E-1,0E0,0E0],"parents":[2147483647,0,0,1,1,2,2,3,3,4,4,6,6,9,9,10,10,13,13,18,18],"right_children":[2,4,6,8,10,-1,12,-1,-1,14,16,-1,-1,18,-1,-1,-1,-1,20,-1,-1],"split_conditions":[1E0,1E0,1E0,1E0,1E0,-2.586783E-1,1E0,-2.2131503E-1,-3.668952E-2,1E0,1E0,1.2612411E-1,-1.8223661E-1,1E0,-1.7772715E-1,-2.1407215E-1,-4.597968E-3,2.2433436E-1,1E0,1.18785106E-1,-8.715851E-4],"split_indices":[26,24,15,3,61,0,25,0,0,21,13,0,0,15,0,0,0,0,4,0,0],"split_type":[0,0,0,0,0,0,0,0,0,0,0,0,0,0,0,0,0,0,0,0,0],"sum_hessian":[2.3638685E1,1.5160293E1,8.478393E0,4.376893E0,1.07834E1,5.885753E0,2.59264E0,2.3985739E0,1.9783194E0,8.115342E0,2.6680572E0,1.0941037E0,1.4985362E0,6.8848944E0,1.2304474E0,1.5530895E0,1.1149677E0,3.4801316E0,3.404763E0,1.7767689E0,1.6279942E0],"tree_param":{"num_deleted":"0","num_feature":"218","num_nodes":"21","size_leaf_vector":"1"}},{"base_weights":[-2.9619718E-1,-5.724751E-1,-2.0328542E-2,-7.082405E-1,4.211021E-2,-2.6307842E-1,4.7007793E-1,-2.5127742E-1,-4.1026288E-1,-2.1175073E-1,1.6346626E-3,3.02461E-1,-7.856849E-2,-2.0836936E-1,2.09439E-2,1.5548314E-1,-2.53007E-1,-1.676862E-1,4.5076925E-2],"categories":[],"categories_nodes":[],"categories_segments":[],"categories_sizes":[],"default_left":[0,0,0,0,0,0,0,0,0,0,0,0,0,0,0,0,0,0,0],"id":12,"left_children":[1,3,5,7,-1,9,11,-1,13,-1,15,-1,-1,-1,-1,-1,17,-1,-1],"loss_changes":[1.7062359E0,1.1857178E0,1.5897061E0,2.6162148E-2,0E0,1.041754E0,2.0114784E0,0E0,7.123852E-1,0E0,9.933864E-1,0E0,0E0,0E0,0E0,0E0,7.0855415E-1,0E0,0E0],"parents":[2147483647,0,0,1,1,2,2,3,3,5,5,6,6,8,8,10,10,16,16],"right_children":[2,4,6,8,-1,10,12,-1,14,-1,16,-1,-1,-1,-1,-1,18,-1,-1],"split_conditions":[1E0,1E0,1E0,1E0,4.211021E-2,1E0,1E0,-2.5127742E-1,1E0,-2.1175073E-1,1E0,3.02461E-1,-7.856849E-2,-2.0836936E-1,2.09439E-2,1.5548314E-1,1E0,-1.676862E-1,4.5076925E-2],"split_indices":[3,136,166,133,0,149,61,0,22,0,25,0,0,0,0,0,9,0,0],"split_type":[0,0,0,0,0,0,0,0,0,0,0,0,0,0,0,0,0,0,0],"sum_hessian":[2.1539421E1,1.022454E1,1.1314881E1,8.594178E0,1.6303608E0,7.878564E0,3.4363177E0,4.72999E0,3.8641887E0,2.3243887E0,5.5541754E0,1.7629038E0,1.6734139E0,2.1463413E0,1.7178473E0,1.4919131E0,4.062262E0,2.0903122E0,1.9719499E0],"tree_param":{"num_deleted":"0","num_feature":"218","num_nodes":"19","size_leaf_vector":"1"}},{"base_weights":[-2.556538E-1,-5.1664644E-1,-1.9520393E-2,-6.5449136E-1,3.4640774E-2,1.81813E-1,-5.128221E-1,-7.150032E-1,-6.389345E-2,4.5911098E-1,-4.195153E-1,-2.0683803E-1,-6.145183E-3,-2.4842356E-1,-2.8998533E-2,2.3315498E-1,9.525886E-2,-2.0405358E-1,2.9593263E-2,1.0589677E-1,-5.303207E-2],"categories":[],"categories_nodes":[],"categories_segments":[],"categories_sizes":[],"default_left":[0,0,0,0,0,0,0,0,0,0,0,0,0,0,0,0,0,0,0,0,0],"id":13,"left_children":[1,3,5,7,-1,9,11,13,-1,15,17,-1,-1,-1,-1,-1,19,-1,-1,-1,-1],"loss_changes":[1.268472E0,9.307952E-1,1.2782E0,6.700659E-2,0E0,1.7285384E0,3.0937344E-1,3.9500475E-1,0E0,7.108034E-1,5.3031653E-1,0E0,0E0,0E0,0E0,0E0,3.64075E-1,0E0,0E0,0E0,0E0],"parents":[2147483647,0,0,1,1,2,2,3,3,5,5,6,6,7,7,9,9,10,10,16,16],"right_children":[2,4,6,8,-1,10,12,14,-1,16,18,-1,-1,-1,-1,-1,20,-1,-1,-1,-1],"split_conditions":[1E0,1E0,1E0,1E0,3.4640774E-2,1E0,1E0,1E0,-6.389345E-2,1E0,1E0,-2.0683803E-1,-6.145183E-3,-2.4842356E-1,-2.8998533E-2,2.3315498E-1,1E0,-2.0405358E-1,2.9593263E-2,1.0589677E-1,-5.303207E-2],"split_indices":[3,136,21,23,0,61,32,15,0,4,9,0,0,0,0,0,16,0,0,0,0],"split_type":[0,0,0,0,0,0,0,0,0,0,0,0,0,0,0,0,0,0,0,0,0],"sum_hessian":[1.9746002E1,8.815022E0,1.0930979E1,7.207821E0,1.6072019E0,8.211159E0,2.7198198E0,5.7942495E0,1.4135714E0,5.7815475E0,2.4296112E0,1.7070105E0,1.0128094E0,4.611717E0,1.1825323E0,2.4787164E0,3.3028312E0,1.4084169E0,1.0211943E0,1.543182E0,1.7596492E0],"tree_param":{"num_deleted":"0","num_feature":"218","num_nodes":"21","size_leaf_vector":"1"}},{"base_weights":[-2.2266316E-1,-6.0956154E-2,-5.442177E-1,-4.6275333E-1,1.1869394E-1,-2.310044E-1,-6.332695E-2,-2.2430305E-1,-5.354737E-3,1.7455749E-1,-9.365493E-2,1.2290179E-1,-1.5483958E-1,-3.3670455E-1,2.6025838E-1,-1.8539917E-1,-7.880981E-2,1.0073265E-1,2.1393975E-2,-9.6105956E-2,8.3930716E-2],"categories":[],"categories_nodes":[],"categories_segments":[],"categories_sizes":[],"default_left":[0,0,0,0,0,0,0,0,0,0,0,0,0,0,0,0,0,0,0,0,0],"id":14,"left_children":[1,3,5,7,9,-1,11,-1,-1,-1,13,-1,-1,15,17,-1,19,-1,-1,-1,-1],"loss_changes":[9.829719E-1,1.0748104E0,6.475818E-1,5.65918E-1,1.0930499E0,0E0,8.836702E-1,0E0,0E0,0E0,7.845076E-1,0E0,0E0,3.3135235E-1,3.116712E-2,0E0,4.2562276E-1,0E0,0E0,0E0,0E0],"parents":[2147483647,0,0,1,1,2,2,3,3,4,4,6,6,10,10,13,13,14,14,16,16],"right_children":[2,4,6,8,10,-1,12,-1,-1,-1,14,-1,-1,16,18,-1,20,-1,-1,-1,-1],"split_conditions":[1E0,1E0,1E0,1E0,1E0,-2.310044E-1,1E0,-2.2430305E-1,-5.354737E-3,1.7455749E-1,1E0,1.2290179E-1,-1.5483958E-1,1E0,1E0,-1.8539917E-1,1E0,1.0073265E-1,2.1393975E-2,-9.6105956E-2,8.3930716E-2],"split_indices":[26,24,15,5,137,0,25,0,0,0,9,0,0,16,12,0,155,0,0,0,0],"split_type":[0,0,0,0,0,0,0,0,0,0,0,0,0,0,0,0,0,0,0,0,0],"sum_hessian":[1.8542149E1,1.3129169E1,5.4129786E0,3.5696328E0,9.559537E0,3.2743287E0,2.13865E0,1.7611995E0,1.8084333E0,2.458053E0,7.1014833E0,1.0925887E0,1.0460612E0,4.238987E0,2.8624964E0,1.359657E0,2.8793302E0,1.4899079E0,1.3725884E0,1.7841241E0,1.0952059E0],"tree_param":{"num_deleted":"0","num_feature":"218","num_nodes":"21","size_leaf_vector":"1"}},{"base_weights":[-1.9725998E-1,-4.5058906E-1,-1.6951141E-3,-2.2747883E-1,-1.1139932E-1,1.531619E-1,-4.312316E-1,1.4533524E-1,-4.613553E-1,3.7046233E-1,-3.6977082E-1,-1.748516E-1,-1.804467E-2,-1.862415E-1,-1.2993043E-2,1.0732698E-1,2.0388949E-1,-1.7255402E-1,4.580903E-3,-9.066213E-2,1.1823324E-1],"categories":[],"categories_nodes":[],"categories_segments":[],"categories_sizes":[],"default_left":[0,0,0,0,0,0,0,0,0,0,0,0,0,0,0,0,0,0,0,0,0],"id":15,"left_children":[1,3,5,-1,7,9,11,-1,13,15,17,-1,-1,-1,-1,19,-1,-1,-1,-1,-1],"loss_changes":[9.0158725E-1,7.432301E-1,8.165261E-1,0E0,1.2545615E0,1.1631786E0,1.4788622E-1,0E0,2.1489674E-1,4.8670518E-1,2.5803742E-1,0E0,0E0,0E0,0E0,6.9504523E-1,0E0,0E0,0E0,0E0,0E0],"parents":[2147483647,0,0,1,1,2,2,4,4,5,5,6,6,8,8,9,9,10,10,15,15],"right_children":[2,4,6,-1,8,10,12,-1,14,16,18,-1,-1,-1,-1,20,-1,-1,-1,-1,-1],"split_conditions":[1E0,1E0,1E0,-2.2747883E-1,1E0,1E0,1E0,1.4533524E-1,1E0,1E0,1E0,-1.748516E-1,-1.804467E-2,-1.862415E-1,-1.2993043E-2,1E0,2.0388949E-1,-1.7255402E-1,4.580903E-3,-9.066213E-2,1.1823324E-1],"split_indices":[3,133,21,0,17,61,14,0,22,155,13,0,0,0,0,18,0,0,0,0,0],"split_type":[0,0,0,0,0,0,0,0,0,0,0,0,0,0,0,0,0,0,0,0,0],"sum_hessian":[1.721376E1,6.9312196E0,1.0282541E1,2.9866052E0,3.9446146E0,8.030721E0,2.25182E0,1.3173383E0,2.6272762E0,5.8792253E0,2.151496E0,1.1935484E0,1.0582716E0,1.5507679E0,1.0765084E0,3.9038162E0,1.9754089E0,1.0809956E0,1.0705005E0,1.5856667E0,2.3181496E0],"tree_param":{"num_deleted":"0","num_feature":"218","num_nodes":"21","size_leaf_vector":"1"}},{"base_weights":[-1.7707582E-1,-8.1649646E-2,-1.9330363E-1,-2.3007168E-1,2.070453E-1,-1.7056936E-1,-4.8993835E-3,1.6989394E-1,-1.8327026E-1,-1.4531094E-1,2.1981953E-1,-7.2230496E-2,-6.284731E-3,1.6876936E-1,-7.184492E-2],"categories":[],"categories_nodes":[],"categories_segments":[],"categories_sizes":[],"default_left":[0,0,0,0,0,0,0,0,0,0,0,0,0,0,0],"id":16,"left_children":[1,3,-1,5,7,-1,9,-1,11,-1,13,-1,-1,-1,-1],"loss_changes":[7.174092E-1,7.1116805E-1,0E0,8.128429E-1,9.1492206E-1,0E0,9.075576E-1,0E0,2.788262E-2,0E0,1.0399345E0,0E0,0E0,0E0,0E0],"parents":[2147483647,0,0,1,1,3,3,4,4,6,6,8,8,10,10],"right_children":[2,4,-1,6,8,-1,10,-1,12,-1,14,-1,-1,-1,-1],"split_conditions":[1E0,1E0,-1.9330363E-1,1E0,1E0,-1.7056936E-1,1E0,1.6989394E-1,1E0,-1.4531094E-1,1E0,-7.2230496E-2,-6.284731E-3,1.6876936E-1,-7.184492E-2],"split_indices":[81,22,0,3,17,0,16,0,14,0,6,0,0,0,0],"split_type":[0,0,0,0,0,0,0,0,0,0,0,0,0,0,0],"sum_hessian":[1.6268988E1,1.4485487E1,1.7835001E0,9.701088E0,4.7843995E0,3.266166E0,6.4349217E0,2.256491E0,2.5279086E0,1.6847711E0,4.7501507E0,1.509813E0,1.0180955E0,2.5914855E0,2.1586654E0],"tree_param":{"num_deleted":"0","num_feature":"218","num_nodes":"15","size_leaf_vector":"1"}},{"base_weights":[-1.5326579E-1,-3.072289E-2,-5.187792E-1,1.4459583E-1,-5.1614636E-1,-2.1450104E-1,3.5596902E-3,-2.3623392E-1,3.665655E-1,-2.0618711E-1,-6.728388E-3,-1.983787E-1,1.457487E-1,1.9906445E-1,2.441566E-2,-4.1768804E-2,1.1642476E-1,-3.6231685E-2,6.4207084E-2],"categories":[],"categories_nodes":[],"categories_segments":[],"categories_sizes":[],"default_left":[0,0,0,0,0,0,0,0,0,0,0,0,0,0,0,0,0,0,0],"id":17,"left_children":[1,3,5,7,9,-1,-1,11,13,-1,-1,-1,15,-1,17,-1,-1,-1,-1],"loss_changes":[7.330866E-1,1.230922E0,4.3912888E-1,9.9641174E-1,3.0769408E-1,0E0,0E0,8.385515E-1,7.145515E-1,0E0,0E0,0E0,2.768875E-1,0E0,1.4642055E-1,0E0,0E0,0E0,0E0],"parents":[2147483647,0,0,1,1,2,2,3,3,4,4,7,7,8,8,12,12,14,14],"right_children":[2,4,6,8,10,-1,-1,12,14,-1,-1,-1,16,-1,18,-1,-1,-1,-1],"split_conditions":[1E0,1E0,1E0,1E0,1E0,-2.1450104E-1,3.5596902E-3,1E0,1E0,-2.0618711E-1,-6.728388E-3,-1.983787E-1,1E0,1.9906445E-1,1E0,-4.1768804E-2,1.1642476E-1,-3.6231685E-2,6.4207084E-2],"split_indices":[61,21,9,24,32,0,0,5,15,0,0,0,19,0,5,0,0,0,0],"split_type":[0,0,0,0,0,0,0,0,0,0,0,0,0,0,0,0,0,0,0],"sum_hessian":[1.572264E1,1.258681E1,3.1358302E0,9.762901E0,2.8239088E0,2.0356534E0,1.1001767E0,3.5713432E0,6.191558E0,1.805853E0,1.0180557E0,1.3443577E0,2.2269855E0,2.8116899E0,3.3798678E0,1.218972E0,1.0080136E0,2.1197555E0,1.2601122E0],"tree_param":{"num_deleted":"0","num_feature":"218","num_nodes":"19","size_leaf_vector":"1"}},{"base_weights":[-1.3839148E-1,-4.890218E-1,-2.994744E-2,-3.180189E-2,-1.8528378E-1,3.1546095E-1,-1.4874913E-1,-2.9619923E-2,1.8659598E-1,-4.7472396E-1,4.608332E-2,-1.7239235E-1,-4.8088804E-2,1.4198078E-1,-1.8681367E-1,1.4033681E-1,-1.4996007E-1,-5.9372026E-2,1.3155983E-1],"categories":[],"categories_nodes":[],"categories_segments":[],"categories_sizes":[],"default_left":[0,0,0,0,0,0,0,0,0,0,0,0,0,0,0,0,0,0,0],"id":18,"left_children":[1,3,5,-1,-1,7,9,-1,-1,11,13,-1,-1,-1,15,17,-1,-1,-1],"loss_changes":[5.953903E-1,1.17975175E-1,5.934671E-1,0E0,0E0,5.3485346E-1,6.944443E-1,0E0,0E0,3.512901E-2,8.385447E-1,0E0,0E0,0E0,6.4331615E-1,4.415654E-1,0E0,0E0,0E0],"parents":[2147483647,0,0,1,1,2,2,5,5,6,6,9,9,10,10,14,14,15,15],"right_children":[2,4,6,-1,-1,8,10,-1,-1,12,14,-1,-1,-1,16,18,-1,-1,-1],"split_conditions":[1E0,1E0,1E0,-3.180189E-2,-1.8528378E-1,1E0,1E0,-2.9619923E-2,1.8659598E-1,1E0,1E0,-1.7239235E-1,-4.8088804E-2,1.4198078E-1,1E0,1E0,-1.4996007E-1,-5.9372026E-2,1.3155983E-1],"split_indices":[149,7,17,0,0,22,3,0,0,22,137,0,0,0,6,37,0,0,0],"split_type":[0,0,0,0,0,0,0,0,0,0,0,0,0,0,0,0,0,0,0],"sum_hessian":[1.5043523E1,2.7246184E0,1.2318904E1,1.143375E0,1.5812434E0,2.729039E0,9.589865E0,1.4489863E0,1.2800527E0,3.0501213E0,6.539744E0,1.6865896E0,1.3635317E0,1.9432623E0,4.5964813E0,2.5174172E0,2.0790644E0,1.3370836E0,1.1803335E0],"tree_param":{"num_deleted":"0","num_feature":"218","num_nodes":"19","size_leaf_vector":"1"}},{"base_weights":[-1.1850065E-1,-2.484963E-1,1.7683834E-1,-2.0703895E-1,-6.4514965E-2,1.807431E-1,-1.01783045E-1,3.0954826E-1,-2.5164932E-1,-8.0922246E-2,3.5592042E-2,-1.5823329E-2,1.5650739E-1,-1.8979219E-1,-1.7262643E-2,2.5570518E-1,-1.1243948E-1,1.6781923E-1,-4.3642167E-2],"categories":[],"categories_nodes":[],"categories_segments":[],"categories_sizes":[],"default_left":[0,0,0,0,0,0,0,0,0,0,0,0,0,0,0,0,0,0,0],"id":19,"left_children":[1,3,5,-1,7,-1,9,11,13,-1,-1,-1,-1,-1,15,17,-1,-1,-1],"loss_changes":[6.380298E-1,8.622809E-1,6.914664E-1,0E0,7.065984E-1,0E0,1.825646E-1,2.9216254E-1,5.7292736E-1,0E0,0E0,0E0,0E0,0E0,5.912251E-1,5.0448704E-1,0E0,0E0,0E0],"parents":[2147483647,0,0,1,1,2,2,4,4,6,6,7,7,8,8,14,14,15,15],"right_children":[2,4,6,-1,8,-1,10,12,14,-1,-1,-1,-1,-1,16,18,-1,-1,-1],"split_conditions":[1E0,1E0,1E0,-2.0703895E-1,1E0,1.807431E-1,1E0,1E0,1E0,-8.0922246E-2,3.5592042E-2,-1.5823329E-2,1.5650739E-1,-1.8979219E-1,1E0,1E0,-1.1243948E-1,1.6781923E-1,-4.3642167E-2],"split_indices":[166,149,23,0,17,0,4,22,15,0,0,0,0,0,9,137,0,0,0],"split_type":[0,0,0,0,0,0,0,0,0,0,0,0,0,0,0,0,0,0,0],"sum_hessian":[1.4473902E1,1.0160354E1,4.313548E0,2.1789234E0,7.98143E0,1.2466861E0,3.066862E0,2.443321E0,5.538109E0,1.6135956E0,1.4532664E0,1.1798222E0,1.2634988E0,1.462199E0,4.07591E0,2.4728072E0,1.6031028E0,1.1829396E0,1.2898676E0],"tree_param":{"num_deleted":"0","num_feature":"218","num_nodes":"19","size_leaf_vector":"1"}},{"base_weights":[-1.0002076E-1,-1.6901556E-1,1.186673E-1,-5.514026E-1,5.498404E-2,-2.2091897E-1,-5.5340778E-2,1.9823538E-1,-9.9019E-2,4.148703E-1,-2.5293533E-2,1.7338412E-1,3.7485946E-2,-2.931877E-2,1.8845513E-2],"categories":[],"categories_nodes":[],"categories_segments":[],"categories_sizes":[],"default_left":[0,0,0,0,0,0,0,0,0,0,0,0,0,0,0],"id":20,"left_children":[1,3,-1,5,7,-1,-1,9,-1,11,13,-1,-1,-1,-1],"loss_changes":[5.7673955E-1,1.2115366E0,0E0,2.1610999E-1,5.952611E-1,0E0,0E0,3.797641E-1,0E0,1.1359191E-1,3.6109205E-2,0E0,0E0,0E0,0E0],"parents":[2147483647,0,0,1,1,3,3,4,4,7,7,9,9,10,10],"right_children":[2,4,-1,6,8,-1,-1,10,-1,12,14,-1,-1,-1,-1],"split_conditions":[1E0,1E0,1.186673E-1,1E0,1E0,-2.2091897E-1,-5.5340778E-2,1E0,-9.9019E-2,1E0,1E0,1.7338412E-1,3.7485946E-2,-2.931877E-2,1.8845513E-2],"split_indices":[51,24,0,22,61,0,0,15,0,137,12,0,0,0,0],"split_type":[0,0,0,0,0,0,0,0,0,0,0,0,0,0,0],"sum_hessian":[1.3912238E1,1.2790489E1,1.1217486E0,4.18489E0,8.605599E0,2.112801E0,2.072089E0,6.62575E0,1.9798492E0,2.9300578E0,3.6956925E0,1.2394077E0,1.69065E0,1.9683707E0,1.7273219E0],"tree_param":{"num_deleted":"0","num_feature":"218","num_nodes":"15","size_leaf_vector":"1"}},{"base_weights":[-8.000651E-2,-4.0838793E-3,-1.5751155E-1,7.401089E-2,-9.831603E-2,1.7841977E-1,-8.773537E-2,-1.7612569E-2,3.5254553E-1,-1.063303E-1,2.8087536E-1,1.8932289E-1,4.4086296E-2,1.5575506E-1,-3.537553E-2,-5.03461E-2,6.261388E-2],"categories":[],"categories_nodes":[],"categories_segments":[],"categories_sizes":[],"default_left":[0,0,0,0,0,0,0,0,0,0,0,0,0,0,0,0,0],"id":21,"left_children":[1,3,-1,5,-1,7,-1,9,11,-1,13,-1,15,-1,-1,-1,-1],"loss_changes":[4.8544022E-1,3.6129883E-1,0E0,4.94443E-1,0E0,3.3447638E-1,0E0,6.501251E-1,4.1383666E-1,0E0,3.901655E-1,0E0,1.5762658E-1,0E0,0E0,0E0,0E0],"parents":[2147483647,0,0,1,1,3,3,5,5,7,7,8,8,10,10,12,12],"right_children":[2,4,-1,6,-1,8,-1,10,12,-1,14,-1,16,-1,-1,-1,-1],"split_conditions":[1E0,1E0,-1.5751155E-1,1E0,-9.831603E-2,1E0,-8.773537E-2,1E0,1E0,-1.063303E-1,1E0,1.8932289E-1,1E0,1.5575506E-1,-3.537553E-2,-5.03461E-2,6.261388E-2],"split_indices":[81,21,0,61,0,18,0,12,17,0,9,0,140,0,0,0,0],"split_type":[0,0,0,0,0,0,0,0,0,0,0,0,0,0,0,0,0],"sum_hessian":[1.3430698E1,1.23354435E1,1.095255E0,1.0558861E1,1.7765828E0,8.616935E0,1.9419256E0,4.476313E0,4.140622E0,2.0150473E0,2.4612658E0,1.6262562E0,2.5143657E0,1.3516638E0,1.1096019E0,1.090841E0,1.4235247E0],"tree_param":{"num_deleted":"0","num_feature":"218","num_nodes":"17","size_leaf_vector":"1"}},{"base_weights":[-6.940594E-2,-3.114113E-1,7.196163E-2,-1.8357812E-1,-3.180052E-2,-1.2034092E-1,3.5528725E-1,-8.802971E-2,8.845187E-2,1.2181509E-1,-2.9012215E-1,1.9110908E-1,1.9192543E-2,8.07907E-2,-1.7243291E-1,-6.796559E-2,1.00279585E-1],"categories":[],"categories_nodes":[],"categories_segments":[],"categories_sizes":[],"default_left":[0,0,0,0,0,0,0,0,0,0,0,0,0,0,0,0,0],"id":22,"left_children":[1,3,5,-1,7,9,11,-1,-1,-1,13,-1,-1,15,-1,-1,-1],"loss_changes":[5.043964E-1,4.3283856E-1,5.7155854E-1,0E0,4.1495088E-1,7.012646E-1,3.0208337E-1,0E0,0E0,0E0,6.292061E-1,0E0,0E0,3.3074027E-1,0E0,0E0,0E0],"parents":[2147483647,0,0,1,1,2,2,4,4,5,5,6,6,10,10,13,13],"right_children":[2,4,6,-1,8,10,12,-1,-1,-1,14,-1,-1,16,-1,-1,-1],"split_conditions":[1E0,1E0,1E0,-1.8357812E-1,1E0,1E0,1E0,-8.802971E-2,8.845187E-2,1.2181509E-1,1E0,1.9110908E-1,1.9192543E-2,1E0,-1.7243291E-1,-6.796559E-2,1.00279585E-1],"split_indices":[3,133,13,0,22,7,137,0,0,0,15,0,0,133,0,0,0],"split_type":[0,0,0,0,0,0,0,0,0,0,0,0,0,0,0,0,0],"sum_hessian":[1.3088356E1,4.382744E0,8.705612E0,1.5395713E0,2.8431728E0,5.5284944E0,3.1771176E0,1.6351314E0,1.2080414E0,1.008896E0,4.5195985E0,1.0117956E0,2.1653218E0,2.2734303E0,2.2461681E0,1.0755364E0,1.197894E0],"tree_param":{"num_deleted":"0","num_feature":"218","num_nodes":"17","size_leaf_vector":"1"}},{"base_weights":[-5.3809054E-2,-1.2322489E-1,1.14671044E-1,-4.7409445E-1,6.355883E-2,-3.4728125E-2,-2.0132792E-1,1.663718E-1,-7.091641E-2,2.896676E-1,-3.549258E-2,1.3640599E-1,1.0171362E-1,-4.719382E-2,2.2895588E-2,-4.7051888E-2,9.633192E-2],"categories":[],"categories_nodes":[],"categories_segments":[],"categories_sizes":[],"default_left":[0,0,0,0,0,0,0,0,0,0,0,0,0,0,0,0,0],"id":23,"left_children":[1,3,-1,5,7,-1,-1,9,-1,11,13,-1,15,-1,-1,-1,-1],"loss_changes":[4.6324718E-1,8.569837E-1,0E0,2.4006617E-1,3.204301E-1,0E0,0E0,1.9384654E-1,0E0,9.915152E-2,6.2232383E-2,0E0,2.4775308E-1,0E0,0E0,0E0,0E0],"parents":[2147483647,0,0,1,1,3,3,4,4,7,7,9,9,10,10,12,12],"right_children":[2,4,-1,6,8,-1,-1,10,-1,12,14,-1,16,-1,-1,-1,-1],"split_conditions":[1E0,1E0,1.14671044E-1,1E0,1E0,-3.4728125E-2,-2.0132792E-1,1E0,-7.091641E-2,1E0,1E0,1.3640599E-1,1E0,-4.719382E-2,2.2895588E-2,-4.7051888E-2,9.633192E-2],"split_indices":[51,24,0,17,61,0,0,14,0,137,12,0,16,0,0,0,0],"split_type":[0,0,0,0,0,0,0,0,0,0,0,0,0,0,0,0,0],"sum_hessian":[1.2748491E1,1.1616603E1,1.1318884E0,3.501293E0,8.11531E0,1.8052402E0,1.6960528E0,6.375355E0,1.7399548E0,3.687886E0,2.6874688E0,1.2080818E0,2.479804E0,1.0914099E0,1.596059E0,1.2691898E0,1.2106142E0],"tree_param":{"num_deleted":"0","num_feature":"218","num_nodes":"17","size_leaf_vector":"1"}},{"base_weights":[-4.3872233E-2,-2.9331636E-1,9.461859E-2,-1.7420675E-1,-1.833908E-2,-1.0134185E-1,3.5206273E-1,6.143066E-2,-6.0815524E-2,-2.8745854E-1,1.1627914E-1,1.494739E-1,-4.444526E-3,-1.696945E-1,4.454756E-2,-6.801489E-2,8.7133884E-2],"categories":[],"categories_nodes":[],"categories_segments":[],"categories_sizes":[],"default_left":[0,0,0,0,0,0,0,0,0,0,0,0,0,0,0,0,0],"id":24,"left_children":[1,3,5,-1,7,9,11,-1,-1,13,-1,-1,-1,-1,15,-1,-1],"loss_changes":[4.938451E-1,3.892354E-1,5.1148915E-1,0E0,1.9036807E-1,6.6940427E-1,2.3798645E-1,0E0,0E0,4.8841977E-1,0E0,0E0,0E0,0E0,2.8020075E-1,0E0,0E0],"parents":[2147483647,0,0,1,1,2,2,4,4,5,5,6,6,9,9,14,14],"right_children":[2,4,6,-1,8,10,12,-1,-1,14,-1,-1,-1,-1,16,-1,-1],"split_conditions":[1E0,1E0,1E0,-1.7420675E-1,1E0,1E0,1E0,6.143066E-2,-6.0815524E-2,1E0,1.1627914E-1,1.494739E-1,-4.444526E-3,-1.696945E-1,1E0,-6.801489E-2,8.7133884E-2],"split_indices":[3,140,166,0,137,32,61,0,0,9,0,0,0,0,24,0,0],"split_type":[0,0,0,0,0,0,0,0,0,0,0,0,0,0,0,0,0],"sum_hessian":[1.2492028E1,4.0604887E0,8.431539E0,1.4418607E0,2.6186283E0,5.1317363E0,3.2998028E0,1.1348364E0,1.4837918E0,4.0153522E0,1.116384E0,2.103561E0,1.1962419E0,1.8018461E0,2.213506E0,1.089562E0,1.1239438E0],"tree_param":{"num_deleted":"0","num_feature":"218","num_nodes":"17","size_leaf_vector":"1"}},{"base_weights":[-3.9548777E-2,4.5796E-2,-1.06431544E-1,1.4454043E-1,-8.334425E-2,-7.895449E-2,2.6123327E-1,-8.939169E-2,6.644642E-2,4.185562E-1,2.15069E-2,1.5042497E-1,4.4649996E-2,7.317514E-2,-5.3349134E-2],"categories":[],"categories_nodes":[],"categories_segments":[],"categories_sizes":[],"default_left":[0,0,0,0,0,0,0,0,0,0,0,0,0,0,0],"id":25,"left_children":[1,3,-1,5,-1,7,9,-1,-1,11,13,-1,-1,-1,-1],"loss_changes":[3.7212494E-1,4.0110302E-1,0E0,2.634986E-1,0E0,3.26728E-1,2.30492E-1,0E0,0E0,9.850383E-3,2.0166408E-1,0E0,0E0,0E0,0E0],"parents":[2147483647,0,0,1,1,3,3,5,5,6,6,9,9,10,10],"right_children":[2,4,-1,6,-1,8,10,-1,-1,12,14,-1,-1,-1,-1],"split_conditions":[1E0,1E0,-1.06431544E-1,1E0,-8.334425E-2,1E0,1E0,-8.939169E-2,6.644642E-2,1E0,1E0,1.5042497E-1,4.4649996E-2,7.317514E-2,-5.3349134E-2],"split_indices":[21,61,0,3,0,22,4,0,0,23,16,0,0,0,0],"split_type":[0,0,0,0,0,0,0,0,0,0,0,0,0,0,0],"sum_hessian":[1.2228362E1,1.0295606E1,1.9327561E0,8.312524E0,1.9830824E0,2.962336E0,5.3501873E0,1.7180946E0,1.2442415E0,2.7798846E0,2.570303E0,1.4694539E0,1.3104306E0,1.1091411E0,1.4611617E0],"tree_param":{"num_deleted":"0","num_feature":"218","num_nodes":"15","size_leaf_vector":"1"}},{"base_weights":[-3.0015606E-2,-1.0321168E-1,4.8483536E-2,2.4148066E-1,-9.8211564E-2,-3.0254917E-3,1.6923602E-1,-2.5968146E-1,1.3097717E-1,7.69372E-2,-9.722332E-2,-1.6308457E-1,-1.19740805E-2,1.2171264E-2,5.2093033E-2,8.5550524E-2,-9.395656E-2],"categories":[],"categories_nodes":[],"categories_segments":[],"categories_sizes":[],"default_left":[0,0,0,0,0,0,0,0,0,0,0,0,0,0,0,0,0],"id":26,"left_children":[1,-1,3,5,7,9,-1,11,13,-1,-1,-1,15,-1,-1,-1,-1],"loss_changes":[3.4079862E-1,0E0,3.463419E-1,4.1272727E-1,2.9991767E-1,4.1289937E-1,0E0,3.135503E-1,6.974835E-3,0E0,0E0,0E0,3.9835835E-1,0E0,0E0,0E0,0E0],"parents":[2147483647,0,0,2,2,3,3,4,4,5,5,7,7,8,8,12,12],"right_children":[2,-1,4,6,8,10,-1,12,14,-1,-1,-1,16,-1,-1,-1,-1],"split_conditions":[1E0,-1.0321168E-1,1E0,1E0,1E0,1E0,1.6923602E-1,1E0,1E0,7.69372E-2,-9.722332E-2,-1.6308457E-1,1E0,1.2171264E-2,5.2093033E-2,8.5550524E-2,-9.395656E-2],"split_indices":[149,0,137,4,9,37,0,16,172,0,0,0,10,0,0,0,0],"split_type":[0,0,0,0,0,0,0,0,0,0,0,0,0,0,0,0,0],"sum_hessian":[1.2148521E1,1.7530432E0,1.0395478E1,4.2102237E0,6.185255E0,2.9586725E0,1.2515512E0,3.5506651E0,2.6345897E0,1.747497E0,1.2111754E0,1.097767E0,2.4528983E0,1.4702147E0,1.1643748E0,1.2616123E0,1.191286E0],"tree_param":{"num_deleted":"0","num_feature":"218","num_nodes":"17","size_leaf_vector":"1"}},{"base_weights":[-2.8797513E-2,-1.3760759E-1,1.6465963E-1,-1.7243224E-1,1.6306117E-2,1.2193816E-1,-2.791657E-2,2.5577646E-1,-2.0817205E-1,-3.1083638E-2,1.9450258E-2,-9.202422E-3,1.6026366E-1,-1.0806319E-1,2.1785308E-2],"categories":[],"categories_nodes":[],"categories_segments":[],"categories_sizes":[],"default_left":[0,0,0,0,0,0,0,0,0,0,0,0,0,0,0],"id":27,"left_children":[1,3,5,-1,7,-1,9,11,13,-1,-1,-1,-1,-1,-1],"loss_changes":[2.9569182E-1,6.045991E-1,2.4996632E-1,0E0,4.5722833E-1,0E0,3.3314582E-2,3.421867E-1,2.152909E-1,0E0,0E0,0E0,0E0,0E0,0E0],"parents":[2147483647,0,0,1,1,2,2,4,4,6,6,7,7,8,8],"right_children":[2,4,6,-1,8,-1,10,12,14,-1,-1,-1,-1,-1,-1],"split_conditions":[1E0,1E0,1E0,-1.7243224E-1,1E0,1.2193816E-1,1E0,1E0,1E0,-3.1083638E-2,1.9450258E-2,-9.202422E-3,1.6026366E-1,-1.0806319E-1,2.1785308E-2],"split_indices":[166,149,23,0,137,0,4,14,9,0,0,0,0,0,0],"split_type":[0,0,0,0,0,0,0,0,0,0,0,0,0,0,0],"sum_hessian":[1.19706545E1,7.8462305E0,4.124424E0,1.3310916E0,6.515139E0,1.336124E0,2.7883003E0,3.0848427E0,3.4302964E0,1.4708284E0,1.3174719E0,1.9591378E0,1.1257048E0,2.0418515E0,1.3884449E0],"tree_param":{"num_deleted":"0","num_feature":"218","num_nodes":"15","size_leaf_vector":"1"}},{"base_weights":[-2.3770422E-2,-8.378781E-2,8.9383066E-2,-4.362415E-1,9.582823E-2,-1.9138496E-1,-2.4200883E-2,9.234584E-2,-1.3913595E-2,-1.8759711E-1,6.2381852E-2,-9.914774E-2,2.158403E-2],"categories":[],"categories_nodes":[],"categories_segments":[],"categories_sizes":[],"default_left":[0,0,0,0,0,0,0,0,0,0,0,0,0],"id":28,"left_children":[1,3,-1,5,7,-1,-1,-1,9,11,-1,-1,-1],"loss_changes":[2.7131048E-1,7.719197E-1,0E0,2.4069071E-1,2.010901E-1,0E0,0E0,0E0,2.9065645E-1,1.7913058E-1,0E0,0E0,0E0],"parents":[2147483647,0,0,1,1,3,3,4,4,8,8,9,9],"right_children":[2,4,-1,6,8,-1,-1,-1,10,12,-1,-1,-1],"split_conditions":[1E0,1E0,8.9383066E-2,1E0,1E0,-1.9138496E-1,-2.4200883E-2,9.234584E-2,1E0,1E0,6.2381852E-2,-9.914774E-2,2.158403E-2],"split_indices":[51,24,0,22,137,0,0,0,9,12,0,0,0],"split_type":[0,0,0,0,0,0,0,0,0,0,0,0,0],"sum_hessian":[1.17584915E1,1.0533054E1,1.225437E0,3.0734315E0,7.459623E0,1.4542917E0,1.6191397E0,1.9287884E0,5.530834E0,3.1888041E0,2.3420303E0,1.8802493E0,1.3085548E0],"tree_param":{"num_deleted":"0","num_feature":"218","num_nodes":"13","size_leaf_vector":"1"}}]},"name":"gbtree"},"learner_model_param":{"base_score":"1.2665887E-1","boost_from_average":"1","num_class":"0","num_feature":"218","num_target":"1"},"objective":{"name":"binary:logistic","reg_loss_param":{"scale_pos_weight":"1"}}},"version":[2,0,3]}